<?xml version="1.0"?>
<opencv_storage>
<my_svm type_id="opencv-ml-svm">
  <svm_type>C_SVC</svm_type>
  <kernel><type>LINEAR</type></kernel>
  <C>1.0000000000000000e-02</C>
  <term_criteria><epsilon>1.0000000474974513e-03</epsilon>
    <iterations>1000</iterations></term_criteria>
  <var_all>3780</var_all>
  <var_count>3780</var_count>
  <class_count>2</class_count>
  <class_labels type_id="opencv-matrix">
    <rows>1</rows>
    <cols>2</cols>
    <dt>i</dt>
    <data>
      -1 1</data></class_labels>
  <sv_total>1</sv_total>
  <support_vectors>
    <_>
      -4.50765155e-03 1.83258746e-02 8.11477192e-03 1.15698883e-02
      1.38383796e-02 4.05091414e-04 -9.44771152e-03 -1.11703863e-02
      -1.69883277e-02 -2.07914114e-02 5.89816889e-04 -1.43980943e-02
      8.66684411e-03 -5.81288664e-03 3.60601232e-03 -5.22956438e-03
      -1.09116780e-02 -2.35721469e-02 -1.89163275e-02 4.61898372e-03
      -1.30316080e-03 1.57066081e-02 -7.65914621e-04 -5.91333583e-03
      -8.66050925e-03 -1.07520968e-02 -2.63192318e-02 -4.33363095e-02
      -9.95569210e-03 -2.22853106e-02 -3.64661595e-04 -1.54799819e-02
      -7.10438285e-03 -1.49503928e-02 -1.76391751e-02 -4.60792631e-02
      -7.27384817e-03 1.85083002e-02 8.55051540e-03 1.57381501e-02
      -2.28277268e-03 1.35857500e-02 6.88877096e-03 4.33894573e-03
      -6.46582572e-03 2.89410306e-03 1.73986126e-02 1.05995371e-03
      -5.07082744e-03 -2.55431291e-02 -1.04840845e-02 -2.29140860e-03
      -8.50112736e-03 -6.29047956e-03 -3.87684442e-02 6.25833310e-03
      -1.04082944e-02 8.24008230e-03 -9.01801512e-03 5.59738651e-03
      -1.88066624e-03 -2.46398593e-03 -3.48377302e-02 -2.93869767e-02
      5.86808380e-03 -8.55510775e-03 -1.16444919e-02 -1.25468951e-02
      -1.27701722e-02 -1.12864356e-02 -1.90665405e-02 -2.92027295e-02
      8.56244471e-03 1.72032844e-02 4.78591351e-03 7.52313621e-03
      -9.63648595e-03 2.40373355e-03 4.03755950e-03 -7.90444762e-03
      1.90062961e-03 5.15418069e-04 6.22950145e-04 -6.54153666e-03
      -1.04191601e-02 -1.32198753e-02 -7.95577560e-03 5.40192658e-03
      -2.89929193e-03 2.81644170e-03 -1.21822953e-02 9.86078376e-05
      -3.78998765e-03 5.25392359e-04 -1.68606713e-02 1.51617592e-03
      -8.69272568e-04 -1.69539545e-02 -2.10817121e-02 -9.64277238e-03
      8.41596571e-04 -8.98050331e-03 -1.07037267e-02 -1.42632108e-02
      -1.64625961e-02 3.37470579e-03 -5.76638663e-03 -1.29479459e-02
      5.64136822e-03 9.15405061e-03 -2.07886449e-03 -1.21397162e-02
      -2.08179820e-02 -1.08194901e-02 -1.06788590e-03 4.77402052e-03
      7.76838604e-03 -3.60847131e-04 1.70888994e-02 1.03639467e-02
      8.26611929e-03 -1.11265155e-02 -1.19980918e-02 -8.44864734e-03
      -7.19814980e-03 -4.65700449e-03 -1.08239306e-02 -2.01476901e-03
      -9.06147528e-03 -1.01522142e-02 -1.18605280e-02 -1.15309497e-02
      5.25749708e-03 7.87604321e-03 -9.36268736e-03 -1.52445650e-02
      4.59821010e-03 1.63308508e-03 7.35490059e-04 -7.91942608e-03
      -1.26375426e-02 3.80744506e-03 6.23491406e-03 -1.60941947e-02
      6.01105765e-03 1.77971888e-02 1.75772049e-02 8.91680177e-03
      -1.33886384e-02 -1.15752332e-02 -9.22553893e-03 -5.93708362e-03
      2.70626764e-03 6.67508785e-03 1.27148712e-02 1.52347181e-02
      2.78400636e-04 -2.20722705e-02 -5.62186912e-03 1.24233048e-02
      9.50049050e-03 1.30718416e-02 -1.63387675e-02 -4.69850702e-03
      3.66699719e-03 -2.87392177e-03 -1.46619445e-02 -1.49527276e-02
      8.16356216e-04 5.38401771e-03 -1.64284352e-02 -1.04981354e-02
      -1.62703991e-02 -7.52291351e-04 -7.53147528e-03 -2.18157750e-02
      -1.25592453e-02 -1.73532707e-03 5.37980488e-03 -1.31229106e-02
      3.30762914e-03 1.85645837e-02 2.01240312e-02 -2.38226913e-03
      -3.92064787e-02 2.09431606e-03 1.33599639e-02 1.36054084e-02
      8.28980468e-03 5.76024596e-03 2.00778227e-02 2.66983975e-02
      1.17624747e-02 -2.25399230e-02 3.52547155e-03 4.09094431e-03
      9.78577789e-03 2.89405463e-03 -2.23476253e-02 -1.35791656e-02
      8.61966237e-03 8.48262338e-04 -3.17390822e-02 -4.14173771e-03
      8.45263829e-04 2.80145369e-03 -1.67957768e-02 -2.84401979e-02
      -1.08226864e-02 7.25793978e-03 4.33929032e-03 -1.57875605e-02
      -1.48436683e-03 4.13244218e-03 4.15567914e-03 -2.49330141e-02
      3.95302288e-03 1.29908975e-02 1.36829000e-02 1.77548751e-02
      -3.34437452e-02 2.53270776e-03 5.45787485e-03 8.77598766e-03
      1.18184846e-03 1.87550168e-02 2.48852745e-02 1.04344795e-02
      1.04475934e-02 -2.14402415e-02 5.89872105e-03 1.47035122e-02
      2.14671846e-02 1.81923639e-02 -3.61300893e-02 -8.29585735e-03
      -7.57364975e-03 5.94836287e-03 -3.97545919e-02 -8.65333434e-03
      3.15864687e-03 -7.39429146e-03 -3.54778431e-02 -1.45062720e-02
      5.93547197e-03 -2.98356265e-03 6.55416446e-03 -2.42659263e-02
      3.06282518e-03 1.50192734e-02 -1.66340673e-03 -1.70913208e-02
      2.02977918e-02 2.88534984e-02 9.69338510e-03 2.90579139e-03
      -4.14337777e-02 -8.24326463e-03 8.48522969e-03 1.43551109e-02
      1.41417189e-02 2.03631166e-02 2.87621953e-02 8.34196620e-03
      7.13468689e-05 -3.03672757e-02 -1.31830166e-03 1.86071619e-02
      2.18004622e-02 1.28588239e-02 -1.05640385e-02 3.30373994e-03
      3.77837016e-04 1.08132786e-04 -3.61982286e-02 -1.10706221e-02
      4.85813245e-03 -1.33721074e-02 -1.99255552e-02 -6.19919598e-03
      2.72484357e-03 -1.04823625e-02 -1.98603682e-02 -2.68065073e-02
      -1.39963990e-02 -1.20567465e-02 -5.50046749e-03 -2.14691423e-02
      1.46670621e-02 1.95621271e-02 8.13546684e-03 -1.04436148e-02
      -3.65174413e-02 5.30296843e-03 1.90967154e-02 2.72473060e-02
      1.43490070e-02 1.43678673e-02 2.42420267e-02 9.69261304e-03
      -1.03200777e-02 -3.67934592e-02 -1.56022457e-03 1.88365858e-02
      3.02424468e-02 1.79979522e-02 -2.10488401e-02 -1.00685575e-03
      -1.01156617e-02 -1.73866022e-02 -3.07819471e-02 -8.34856182e-03
      2.40617152e-03 2.37449538e-03 -2.89749689e-02 -1.31659210e-02
      5.57355536e-03 5.96211571e-03 -1.96828023e-02 -3.61926295e-02
      -1.55616691e-02 1.61194168e-02 7.48356385e-03 -1.08876126e-02
      1.13171507e-02 1.55908987e-02 5.14000421e-03 -1.10899517e-02
      -5.11285327e-02 -1.19305477e-02 1.76133364e-02 2.53011174e-02
      1.72775760e-02 1.27130933e-02 1.77699644e-02 1.03140436e-02
      5.17901150e-04 -3.82143706e-02 -3.86174279e-03 2.42228564e-02
      3.56015675e-02 1.78333074e-02 -1.18694073e-02 3.63999070e-03
      8.94954894e-03 -1.90995075e-02 -4.95498404e-02 -1.81800742e-02
      1.52471522e-02 7.25985924e-03 -9.09505598e-03 -1.23751257e-02
      7.23464880e-03 7.39244418e-03 -6.30956236e-03 -3.49764824e-02
      -9.31730773e-03 1.59023665e-02 1.31624592e-02 -1.13186473e-02
      9.45627596e-03 1.18254554e-02 -4.30559274e-03 -1.14523815e-02
      -4.55404408e-02 -4.22882428e-03 1.26813920e-02 2.36073378e-02
      1.66384934e-03 7.28263427e-03 3.59913637e-03 1.45193946e-04
      -1.39145867e-03 -3.75299528e-02 4.62490320e-03 1.22356135e-02
      1.52719859e-02 -2.50499143e-04 -2.02914048e-02 6.64954120e-03
      -4.90888394e-03 -1.67220179e-02 -3.95225622e-02 -9.96513478e-03
      8.12115055e-03 1.18343793e-02 -2.49106418e-02 -9.30062379e-04
      2.58695194e-03 2.33083987e-03 -5.80369495e-03 -3.84821221e-02
      -4.56604129e-03 6.25769095e-03 1.21414019e-02 -1.29687954e-02
      -7.87245750e-04 4.60291281e-03 2.30714446e-03 -3.41581600e-03
      -4.81567867e-02 2.79110018e-03 5.83292544e-03 6.05247729e-03
      -7.09670037e-03 -1.47106713e-02 1.19265532e-02 2.13221437e-03
      7.47356424e-03 -3.64564843e-02 6.03163242e-03 5.64822229e-03
      4.80461447e-03 -1.40016191e-02 -1.13493716e-02 1.40725623e-03
      1.08273129e-03 1.16145506e-03 -4.66328077e-02 1.58643222e-03
      6.01320667e-03 6.50829216e-03 -1.46709979e-02 -2.15266030e-02
      1.93068553e-02 6.37025433e-03 4.85129858e-04 -3.93895879e-02
      7.66526582e-03 6.08445657e-03 2.05451939e-02 -2.52082609e-02
      -1.58893690e-02 1.22973258e-02 -5.02410624e-03 -3.50163202e-03
      -5.92464656e-02 -5.39923972e-03 -7.98667688e-03 3.26191098e-03
      -1.77426394e-02 -1.45897747e-03 1.69001035e-02 -7.25193974e-03
      8.91911797e-03 -3.71397249e-02 -3.33885546e-04 -1.24973757e-02
      5.76979714e-03 -5.02176862e-03 -1.73796508e-02 1.56987421e-02
      -1.68811914e-03 -6.22837106e-03 -5.94518781e-02 -2.17900914e-03
      -2.84040556e-03 2.62382608e-02 -2.16736253e-02 -5.02080005e-03
      1.51153458e-02 -5.78531250e-03 6.06078561e-03 -4.36638668e-02
      1.65509540e-04 -9.51663032e-03 2.40282044e-02 -9.71583650e-03
      -3.02766007e-03 6.72638929e-03 -6.24840753e-03 2.20194273e-03
      -5.17219529e-02 1.36552018e-03 -1.31102866e-02 5.70982089e-03
      2.37747096e-03 -2.97507131e-03 1.03644179e-02 -1.04766125e-02
      7.22431904e-03 -5.06864153e-02 6.32395968e-03 1.07871345e-03
      1.52126253e-02 -1.12610273e-02 -6.35785563e-03 1.22909630e-02
      -8.97261128e-03 -4.14034002e-04 -6.15648851e-02 3.59042734e-03
      -1.14504891e-02 1.04640843e-02 -6.96931919e-03 -6.22837851e-03
      1.89189222e-02 -1.63071994e-02 -5.54974983e-03 -4.36048843e-02
      3.61316768e-03 -1.23336061e-03 1.53130470e-02 -1.62692741e-02
      -4.39230725e-03 5.30519243e-03 -1.24367280e-02 7.08940020e-03
      -7.75400847e-02 -4.04426549e-03 -8.31157248e-03 5.06961718e-03
      -1.32424096e-02 -6.59165764e-03 5.52795455e-03 -6.31016400e-03
      3.33234132e-03 -5.98607399e-02 1.12392735e-02 -4.34863893e-03
      7.48004112e-03 -8.00189469e-03 -7.14027276e-03 1.13226399e-02
      -1.73725486e-02 1.30506419e-03 -6.18310198e-02 3.04366159e-03
      -5.62731596e-03 8.87070131e-03 -2.20699608e-02 -8.01239349e-03
      8.13112780e-03 -1.26411868e-02 5.32824604e-04 -6.02782257e-02
      5.55937085e-03 -9.18498915e-03 1.24709280e-02 -2.32393760e-02
      -6.59915060e-03 5.92291821e-03 9.78585985e-03 2.14143470e-02
      -1.43214120e-02 -1.29493070e-03 -3.01334634e-03 1.61192543e-03
      -6.44247513e-03 -2.09569708e-02 1.10794231e-02 -1.59123843e-03
      1.01566613e-02 -2.41806246e-02 -1.56911314e-02 -8.32275767e-03
      -5.26421564e-03 -2.17738282e-02 -5.64500503e-03 1.68147217e-03
      -4.03000275e-03 1.79425045e-03 -1.20596243e-02 -2.21319869e-03
      -2.81060627e-03 4.01974097e-03 -5.98782348e-03 -1.09323310e-02
      6.51640538e-03 -3.04399221e-03 2.18124158e-04 -8.61615781e-03
      -8.28465819e-03 -9.80360247e-03 -6.43842947e-03 -1.63305849e-02
      -2.42665540e-02 1.78297777e-02 3.28836875e-04 1.09951030e-02
      -1.83874983e-02 6.53896062e-03 8.87573790e-03 -2.24824616e-04
      -2.33520493e-02 -2.31162012e-02 1.02233589e-02 -2.81577464e-03
      -2.41790828e-03 -2.99963243e-02 -8.15091655e-04 1.46355946e-03
      -9.19985864e-03 -2.66175326e-02 -2.06024200e-02 1.03736119e-02
      4.32804180e-03 1.00882817e-02 5.48889977e-04 1.32009564e-02
      9.79320239e-03 2.09520757e-03 -1.96299069e-02 -8.59504193e-03
      7.10107852e-03 7.34990137e-03 -2.01930269e-03 -2.02014074e-02
      -1.34611037e-03 4.90219938e-03 1.08867860e-03 -1.41799822e-02
      -1.93118094e-03 1.01611214e-02 1.03117218e-02 6.07152283e-03
      -3.48590948e-02 1.81996985e-03 2.72603682e-03 -2.31845048e-03
      -1.23279504e-02 3.52508482e-03 9.43615381e-03 3.02928477e-03
      9.93735855e-04 -2.06223354e-02 -2.64687296e-02 -1.23994136e-02
      -3.47171590e-04 -7.32611399e-03 1.11940028e-02 2.16000248e-02
      1.68261696e-02 5.80074312e-03 -3.22068930e-02 -4.09529638e-03
      7.89220072e-03 1.45878259e-03 -5.72518120e-03 1.11211054e-02
      1.33127645e-02 -7.97399902e-04 -1.11992145e-02 -1.19315051e-02
      -1.58000309e-02 -9.86720715e-03 1.76989524e-05 -2.78918655e-03
      9.20880027e-03 1.14344163e-02 6.60980074e-03 1.06161339e-02
      -1.04985284e-02 -8.92112963e-03 4.45531914e-03 1.44316992e-02
      6.00235863e-03 -4.20474354e-03 -1.37740439e-02 -1.63672667e-04
      4.45566420e-03 -7.25468807e-03 -5.08703291e-03 9.51841474e-03
      1.87882315e-02 4.38214280e-03 1.06299268e-02 3.23891582e-04
      -2.60511264e-02 -1.90688949e-02 2.68947100e-04 1.86130591e-03
      -1.11475645e-03 9.40338895e-03 8.99329409e-03 -1.79768726e-02
      -5.96396737e-02 -6.40916824e-02 -4.05679867e-02 2.59294221e-03
      6.91326056e-03 4.55960585e-03 1.88421030e-02 1.04847290e-02
      -4.53939242e-03 -2.82031894e-02 -3.67075531e-03 1.98268145e-03
      -4.06745356e-03 5.55284973e-03 1.49461543e-02 2.09193099e-02
      6.40489720e-03 -2.40595415e-02 -3.30732204e-02 -4.12759371e-03
      1.02827139e-02 6.78007351e-03 1.62450187e-02 1.39757432e-02
      1.18949525e-02 -1.06803365e-02 -3.86664085e-02 -7.02666640e-02
      -5.50301000e-02 -8.47150199e-03 1.01313340e-02 2.00968087e-02
      2.14090180e-02 1.79159623e-02 -4.01221355e-03 -4.34355848e-02
      -5.67063913e-02 -2.43489444e-02 2.50748694e-02 2.24213060e-02
      3.73292342e-02 2.63286959e-02 8.71002674e-03 -3.50936130e-02
      -3.32484692e-02 -3.05672381e-02 -2.05166009e-03 2.12500915e-02
      -1.12523223e-04 1.27610452e-02 1.13619119e-02 3.96513287e-03
      -1.83312874e-02 -3.66064906e-02 -2.33285129e-02 6.44828938e-03
      2.90296208e-02 1.04676317e-02 1.27241984e-02 1.33656701e-02
      -4.60170209e-03 -3.17315385e-02 -5.01152165e-02 -3.49802077e-02
      -1.76043753e-02 3.08069717e-02 2.64925417e-02 2.69940812e-02
      1.18261641e-02 -1.78619206e-03 -2.93077622e-02 -5.08823022e-02
      -2.17683353e-02 -7.91051053e-03 3.60636152e-02 2.99355276e-02
      2.70024519e-02 -2.60372204e-03 -1.53259262e-02 -3.44756097e-02
      -2.67224144e-02 -4.93819779e-03 1.30633852e-02 2.48457864e-02
      -1.16822533e-02 9.94361565e-03 6.57733204e-03 -1.18137104e-02
      -3.17870490e-02 -1.83407590e-02 6.43204898e-03 1.07342247e-02
      2.40904838e-02 5.86383604e-03 2.60054115e-02 1.18721332e-02
      -8.99232365e-03 -2.46773195e-02 -4.04256098e-02 -1.78514421e-02
      6.90669008e-03 3.73308063e-02 6.10047625e-03 1.68480668e-02
      -1.68599859e-02 -2.13730149e-02 -3.97047177e-02 -3.91469225e-02
      -3.62159982e-02 2.19539553e-03 2.87209302e-02 7.34886760e-03
      2.38673817e-02 -1.51486397e-02 -3.00022289e-02 -4.07358259e-02
      -6.31139381e-03 2.93007842e-03 8.79651774e-03 2.25644652e-02
      -4.47793305e-03 1.55457063e-02 7.00828899e-03 -8.36303458e-03
      -1.35897659e-02 4.46940819e-03 6.16224424e-04 7.58494891e-04
      3.73299024e-03 1.50624884e-03 2.15790304e-03 -5.62355993e-03
      -2.52045109e-03 1.54176145e-03 -4.44087014e-02 -3.89819033e-02
      -1.36652458e-02 1.81320682e-02 6.09968742e-03 9.19136405e-03
      -1.55531010e-02 -2.84520779e-02 -3.24916728e-02 -3.38889584e-02
      -2.24188752e-02 -2.06028000e-02 -7.85744982e-04 6.51015434e-03
      1.42837916e-05 -1.75298471e-02 -1.53661883e-02 -2.56675649e-02
      -6.68333657e-03 2.57637189e-03 1.00590028e-02 1.67018807e-04
      -2.39319894e-02 -4.15854016e-03 -3.97204747e-03 -2.66205077e-03
      -5.87009033e-03 5.44775650e-03 2.32288186e-02 2.87337340e-02
      -2.62929389e-04 -1.46358684e-02 2.05905247e-03 1.69502515e-02
      2.01194230e-02 8.19195807e-03 -3.16931270e-02 -1.33141456e-02
      -1.19756523e-03 -1.46595773e-03 -3.92461102e-03 -6.25536358e-03
      -9.92524717e-03 -1.43752368e-02 -3.36614810e-02 -1.56770740e-02
      6.37092628e-03 1.16284499e-02 2.89274380e-03 -1.42313289e-02
      -7.97928032e-03 1.23479124e-03 -1.41722541e-02 -3.07077076e-02
      7.36410310e-03 1.97830498e-02 2.30622664e-02 -1.43896183e-03
      -4.37746346e-02 -1.01048723e-02 9.68370959e-03 1.77683476e-02
      1.05598196e-02 1.47600295e-02 2.30566375e-02 2.24891398e-02
      1.47879831e-02 -2.86291335e-02 2.99198134e-03 2.29524244e-02
      2.45353561e-02 2.17454210e-02 -2.79802270e-02 1.08943414e-03
      5.90170734e-03 -5.28689614e-03 -4.15829904e-02 -2.56521907e-02
      -1.24580506e-02 -1.94945615e-02 -3.47008854e-02 -1.79405343e-02
      6.82762498e-03 5.05505083e-03 -3.28629510e-03 -2.41233427e-02
      -6.08729292e-03 -2.85389763e-03 -8.73967912e-03 -1.53779350e-02
      -7.88270321e-04 1.49711343e-02 1.17257573e-02 1.49557134e-03
      -5.79637475e-02 -6.13351120e-03 1.73922218e-02 2.51126010e-02
      8.71625356e-03 6.71354588e-03 1.77129302e-02 2.07942296e-02
      1.53899090e-02 -4.41044569e-02 3.28735379e-03 1.80473495e-02
      3.41874324e-02 1.15177548e-02 -2.79083177e-02 -3.89721594e-03
      -8.09661020e-03 -1.89693738e-02 -4.30726707e-02 -9.68724024e-03
      -1.47306116e-03 -3.36394855e-03 -1.53803080e-02 -1.16404649e-02
      -9.73793864e-03 -1.02955829e-02 -2.03297399e-02 -3.79795656e-02
      -4.72135172e-04 6.70988066e-03 8.99459422e-03 -6.79049548e-03
      9.63861588e-04 1.86923929e-02 1.29168285e-02 1.13205882e-02
      -5.44348285e-02 -6.49864902e-04 7.28375930e-03 2.24655010e-02
      2.84039212e-04 -1.34192873e-03 2.71447189e-02 1.14825862e-02
      8.84891301e-03 -5.27550168e-02 1.42763760e-02 2.07530633e-02
      3.46367992e-02 4.54003317e-03 -2.43189856e-02 -4.77470877e-03
      -1.42480899e-02 -1.96246319e-02 -5.22499830e-02 -1.07246861e-02
      -9.53420252e-03 2.17982754e-03 -2.13099271e-02 -2.28550769e-02
      8.46980605e-03 -3.21442960e-03 -6.13277080e-03 -3.93868089e-02
      -9.09952261e-03 -5.14994469e-03 -2.40248325e-03 -1.92060582e-02
      1.03587238e-03 1.39211519e-02 -4.08644415e-03 -2.05805455e-03
      -6.65136129e-02 6.56114845e-03 3.89241125e-03 2.53551546e-02
      8.99054576e-03 9.75589640e-03 2.01449469e-02 -1.05414249e-03
      1.02678724e-02 -4.82958369e-02 1.45989321e-02 4.26926475e-04
      2.67348643e-02 1.55023541e-02 -1.23564629e-02 5.80719812e-03
      -1.22361109e-02 -1.17883831e-02 -5.21472394e-02 -1.05021261e-02
      -1.68298259e-02 -6.52100146e-03 -9.30459239e-03 -3.05353105e-03
      -8.10640457e-04 -1.24794636e-02 -7.70907290e-03 -4.85585257e-02
      -1.03351614e-02 -2.44195741e-02 -1.63725726e-02 -2.00798269e-03
      1.40426466e-02 2.02877782e-02 -1.28724449e-03 6.63798768e-03
      -5.33465669e-02 4.61602118e-03 -7.15653505e-03 1.39547782e-02
      1.57247987e-02 1.99569501e-02 2.29763612e-02 -6.58614590e-05
      8.72423220e-03 -4.28837948e-02 3.78120039e-03 9.90126646e-05
      1.61374826e-02 1.33410450e-02 -2.79506086e-03 -7.75430119e-03
      -2.06986517e-02 -1.43058486e-02 -6.46723136e-02 -2.32331064e-02
      -2.86347885e-02 -9.86232888e-03 2.18120142e-04 2.23873253e-03
      7.44556659e-04 -2.38755587e-02 -1.94072705e-02 -4.62215692e-02
      -3.44092473e-02 -2.69914865e-02 -2.40853359e-03 -2.78623920e-04
      9.55186412e-03 1.04105249e-02 -9.97989904e-03 -1.52932567e-04
      -6.74868077e-02 3.76055716e-03 -7.36454129e-03 2.91401683e-03
      -6.63788617e-03 1.08260354e-02 1.10967215e-02 -9.63023957e-03
      -1.48064445e-03 -6.58773258e-02 1.70933641e-02 8.52244161e-03
      1.39682014e-02 1.06385048e-03 5.44895884e-03 4.17041039e-04
      -2.17398927e-02 -2.13722698e-02 -6.16302118e-02 -3.04289944e-02
      -3.81672308e-02 -1.44979283e-02 -6.98732166e-03 1.15854004e-02
      8.05994403e-03 -1.64159276e-02 -1.03473570e-02 -6.85246885e-02
      -6.12170389e-03 -1.33175012e-02 3.38567491e-03 4.38391510e-03
      -1.27619347e-02 -2.90231197e-03 -1.21922037e-02 -8.50287639e-03
      -1.45213297e-02 5.13053674e-04 -3.96479247e-03 -4.88962687e-04
      -1.15461918e-02 -1.34385591e-02 -3.91505519e-03 -1.31521411e-02
      -1.46964686e-02 -2.62935739e-02 -8.89185909e-03 -7.41296727e-03
      2.57035950e-04 -1.58501286e-02 -1.34209748e-02 2.38417764e-04
      -1.28986426e-02 -1.60425175e-02 -1.42040933e-02 5.99532994e-03
      -2.99468846e-03 3.89481219e-03 -8.07741471e-03 -8.06083437e-03
      3.33652599e-03 -1.32472469e-02 -2.81826388e-02 -2.74981875e-02
      -8.30486510e-03 -3.30268894e-03 1.49941286e-02 -5.40941581e-03
      -3.17662815e-03 5.41587546e-03 -1.80493225e-03 5.33928536e-03
      -8.22390243e-03 1.70446262e-02 1.16410200e-02 1.68998390e-02
      -1.27956402e-02 -6.34632446e-03 -5.88820176e-03 -5.24695497e-03
      -8.00796039e-03 -1.35962609e-02 2.56755878e-03 4.14390070e-03
      -5.16233547e-03 -1.78040806e-02 1.04122225e-03 -5.50390221e-03
      -2.62271669e-02 -2.11021528e-02 -1.71692707e-02 1.14293164e-02
      1.23372115e-02 2.72511486e-02 4.01996449e-03 -2.54576597e-02
      -6.79419413e-02 -7.42143020e-02 -5.47743440e-02 -1.66212730e-02
      3.38199106e-03 1.10192094e-02 5.05044078e-03 -1.05183534e-02
      7.35500082e-03 6.84681023e-03 9.37827863e-03 6.81189355e-03
      -5.78387128e-03 1.24929911e-02 1.79699883e-02 -3.79725196e-03
      1.70590065e-03 1.09420186e-02 1.20205693e-02 -4.89796931e-03
      -7.27304211e-03 -2.17808178e-03 -8.36245832e-04 2.58038845e-03
      -3.97353759e-03 4.67808452e-03 -3.55386734e-02 -4.96466495e-02
      -4.96840775e-02 -1.70230549e-02 4.10685781e-03 1.02697052e-02
      1.45194242e-02 -1.11476788e-02 -2.44812947e-02 -2.56985202e-02
      -2.22544298e-02 -3.70569266e-02 -1.93120036e-02 1.56359642e-03
      -1.86472014e-02 -2.61184741e-02 -3.97593752e-02 -3.62411477e-02
      1.91055089e-02 -3.45769245e-03 -4.56637591e-02 -3.88380662e-02
      -4.71187150e-03 1.41790519e-02 2.81552231e-04 7.29659665e-03
      1.77946724e-02 8.34548473e-03 -5.81041947e-02 -8.07634518e-02
      -5.50749935e-02 1.01481171e-04 3.16696204e-02 1.04413470e-02
      1.33445337e-02 2.53722351e-02 4.07361338e-04 -2.25047488e-02
      -5.72472177e-02 -4.55956161e-02 -1.14169801e-02 -6.61227852e-03
      -2.79291663e-02 -2.48184651e-02 -5.37449121e-03 3.47360224e-02
      -2.06374973e-02 -5.39085269e-02 -3.74393687e-02 -3.64217581e-03
      2.48865392e-02 -2.84337788e-03 4.48416313e-03 2.97101103e-02
      -4.12333570e-02 -7.67486617e-02 -7.83195868e-02 -3.35422829e-02
      -6.47129957e-03 2.10111793e-02 1.48853613e-03 -3.49737867e-03
      -1.63189992e-02 -4.84083965e-02 -4.03732173e-02 -2.82605011e-02
      1.30018024e-02 5.79909375e-03 2.61629429e-02 -7.16281706e-04
      -7.80874677e-03 -4.51398529e-02 9.39557329e-03 -1.35950027e-02
      -2.59207953e-02 -5.42601757e-03 2.18650210e-03 2.07801573e-02
      -3.34658637e-03 -7.38492096e-03 6.17334899e-03 -1.29096461e-02
      8.59579630e-03 -3.37030645e-03 1.88055132e-02 1.67663507e-02
      2.94507891e-02 2.58045807e-03 -2.11237901e-04 -1.61181502e-02
      -4.72347774e-02 -2.49031186e-02 -2.64718290e-02 1.49947209e-02
      7.49240769e-03 2.22993605e-02 -1.10038025e-02 -1.48474881e-02
      -4.58022691e-02 -4.18911465e-02 -3.59826982e-02 -3.23962718e-02
      2.27698451e-03 8.25589709e-03 2.61581428e-02 -1.50799938e-02
      -1.84562597e-02 -4.29727063e-02 -1.36613445e-02 4.11088765e-03
      -1.05345249e-02 1.78204142e-02 7.10753445e-03 3.43733579e-02
      -7.77668832e-03 -6.94237789e-03 -2.58975867e-02 -9.13332682e-03
      4.43633273e-03 -1.69295017e-02 3.71419545e-03 2.58985185e-03
      3.66054438e-02 -9.86960065e-03 -1.32519752e-02 -2.15536878e-02
      -3.30894776e-02 -3.55224833e-02 -2.65789106e-02 7.06551131e-03
      -8.68759491e-03 1.21966144e-02 -2.36595161e-02 -1.53692765e-02
      -3.97157371e-02 -3.17090601e-02 -5.78675568e-02 -3.38660069e-02
      8.54030624e-03 -1.44853564e-02 4.69164178e-03 -2.92480476e-02
      -2.41612419e-02 -3.11180167e-02 -4.31183446e-03 1.33620447e-03
      -1.70792900e-02 3.44491750e-03 -1.39598697e-02 2.40679439e-02
      8.48060288e-03 5.29326964e-03 -3.99278011e-03 2.96987942e-03
      3.42770480e-03 -1.76624134e-02 1.10432860e-02 -1.58593953e-02
      9.84703004e-03 5.94608355e-05 8.40091426e-03 9.38393525e-04
      -3.72116379e-02 -5.37537746e-02 -3.63439620e-02 9.65784211e-03
      -1.91247929e-02 -3.55353183e-03 -3.74403149e-02 -2.93918215e-02
      -2.76133306e-02 -3.96952964e-02 -3.47705260e-02 -2.51168255e-02
      1.90705096e-03 -8.24690983e-03 5.51498088e-05 -3.20509933e-02
      -2.82955598e-02 -3.69411819e-02 1.61325634e-02 1.41683696e-02
      -3.11840652e-03 1.68293081e-02 -3.25605460e-02 -1.46236713e-03
      -1.86067205e-02 -3.04801064e-03 1.76856127e-02 1.91598479e-02
      3.28607373e-02 1.54635403e-02 2.71694418e-02 -1.19220484e-02
      6.56177010e-03 -1.13013852e-02 7.85269402e-03 1.65132768e-02
      -4.06294614e-02 -2.39789821e-02 -1.50669813e-02 9.40557336e-04
      -6.03707554e-03 -4.68035415e-03 -2.13554036e-02 -3.33737023e-02
      -5.44227324e-02 -4.58303057e-02 -1.52443722e-02 -6.73050014e-03
      1.00840861e-02 -1.86450779e-02 -6.01758435e-03 -1.45658255e-02
      -4.57679778e-02 -5.86349778e-02 1.30555453e-02 2.40520891e-02
      8.66518822e-03 2.09365524e-02 -6.58917520e-03 -4.04484017e-04
      -1.04896724e-02 1.36288663e-03 -3.71423317e-03 -8.60656146e-03
      2.00879034e-02 3.74493585e-03 2.75495462e-02 -3.82982357e-03
      1.19614983e-02 -2.29731156e-03 7.99657684e-03 -1.95032805e-02
      -4.59757484e-02 -9.54192225e-03 5.53407287e-03 2.53116637e-02
      -7.93271419e-03 4.64094017e-04 -2.09612548e-02 -5.01785241e-02
      -6.75365776e-02 -5.32952026e-02 -1.28328092e-02 5.43715013e-03
      1.34137729e-02 8.37450789e-05 5.90472063e-03 -3.00733969e-02
      -5.66830412e-02 -5.57982959e-02 -2.96039786e-02 1.71412285e-02
      1.73964351e-02 4.32126522e-02 1.13773188e-02 3.54322903e-02
      4.67819278e-04 -1.51875429e-04 -3.59303914e-02 -4.20265123e-02
      2.54607061e-03 1.05336225e-02 3.91866118e-02 2.17657126e-02
      3.79014350e-02 -7.24611990e-03 -2.37956643e-02 -4.12234627e-02
      -3.97948883e-02 -1.28428377e-02 -5.06160455e-03 1.67237618e-03
      -1.92361604e-03 1.13333510e-02 -4.12128167e-03 -3.52897532e-02
      -3.93837206e-02 -3.13276090e-02 -1.67662334e-02 -1.68833993e-02
      -1.42464915e-03 8.01272318e-03 1.40395965e-02 6.85457326e-03
      -1.90663841e-02 -2.94637494e-02 -3.38372774e-02 -1.30848847e-02
      -8.46201088e-03 1.84366275e-02 1.67552419e-02 2.24438608e-02
      -1.26397319e-03 -2.59377174e-02 -3.36428992e-02 -3.93712036e-02
      -2.64323596e-02 -8.91709886e-03 1.68409441e-02 2.79465485e-02
      2.06831116e-02 -3.79184540e-03 -2.44485568e-02 -4.04774137e-02
      -3.75343785e-02 -1.01022152e-02 -1.56907155e-03 7.65196374e-03
      7.41218310e-03 1.71314403e-02 -1.86827401e-05 -2.07332745e-02
      -4.67114635e-02 -2.83198599e-02 2.75755930e-03 1.75946318e-02
      2.36920454e-02 1.16590550e-02 2.40237825e-02 -3.72409192e-03
      -3.08593083e-02 -4.45564985e-02 -6.12036064e-02 -2.90344246e-02
      6.87409309e-04 2.66784690e-02 3.78928743e-02 3.61036994e-02
      -1.66242896e-03 -3.39201912e-02 -6.58089593e-02 -5.45597225e-02
      -2.55474411e-02 5.15518151e-03 3.14414017e-02 4.24873158e-02
      4.31535691e-02 -3.85639188e-03 -4.50353287e-02 -5.83181903e-02
      -3.65946256e-03 1.12267639e-02 1.50633398e-02 1.74361579e-02
      1.05721401e-02 1.93169117e-02 -1.74537452e-03 -1.25367846e-02
      -1.74986124e-02 -9.62136255e-04 -3.53510259e-03 1.64786226e-03
      9.65364557e-03 1.51600325e-02 2.64191628e-03 -8.69162660e-03
      -1.02202725e-02 -1.29679125e-03 -4.05825116e-02 -2.56097149e-02
      -1.18407356e-02 1.31572066e-02 2.39541158e-02 1.99023243e-02
      -9.70608369e-03 -4.19199988e-02 -4.89968807e-02 -5.48598431e-02
      -5.04575074e-02 -3.62412408e-02 -1.59164965e-02 1.24141453e-02
      -2.06872672e-02 -3.95933241e-02 -5.58395945e-02 -6.14858642e-02
      1.08259358e-02 -8.95609800e-03 -2.38370826e-03 1.23640790e-03
      1.21987204e-03 -1.40692666e-03 -1.30286682e-02 -2.32239394e-03
      1.66741349e-02 3.22120115e-02 1.16874892e-02 1.13473525e-02
      4.17668000e-03 4.19298594e-04 3.37142701e-04 -2.99543166e-03
      1.94946751e-02 3.69417667e-02 -5.63434921e-02 -6.20559826e-02
      -4.63326052e-02 -4.01423685e-02 -1.90430786e-02 -2.75686458e-02
      -5.23025841e-02 -5.33640496e-02 -5.76133393e-02 -2.39881556e-02
      -3.76900621e-02 -3.46401371e-02 -4.36548553e-02 -1.85196139e-02
      -3.14266458e-02 -3.41747701e-02 -2.06807796e-02 -1.67918205e-02
      1.25568751e-02 4.10896540e-03 -5.70844859e-03 -1.67931635e-02
      -7.07081556e-02 -3.89595143e-02 -4.45982181e-02 -7.32689071e-03
      4.45989147e-03 2.95749120e-02 2.88408492e-02 1.50926672e-02
      1.11945905e-02 -5.10199443e-02 7.09877722e-03 -6.51641656e-03
      1.52344760e-02 2.08053607e-02 -1.49890920e-02 -2.12778188e-02
      -3.20762955e-02 -6.25443906e-02 -7.92589486e-02 -7.63887614e-02
      -5.33598475e-02 -2.79256683e-02 -1.55506488e-02 1.32652139e-02
      3.03846672e-02 1.43957594e-02 -5.71285002e-03 -4.79244627e-02
      6.97108964e-03 1.87378447e-03 1.40236476e-02 9.05433204e-03
      -7.25620938e-03 -2.30218633e-03 -1.50723308e-02 -1.61758736e-02
      -2.53345314e-02 8.56056437e-03 -1.79489754e-04 1.06461309e-02
      -5.86854853e-03 -4.83505224e-04 2.30706064e-03 -9.81853809e-03
      -2.32204460e-02 -5.09758331e-02 -7.93633517e-03 2.99642608e-03
      2.03499664e-02 -8.02809093e-03 -9.71283205e-03 5.88922203e-03
      -1.32725397e-02 -1.43594816e-02 -1.84116904e-02 4.91356896e-03
      -2.42325477e-03 3.19041405e-03 -7.29128905e-03 -8.46321508e-03
      1.10431144e-03 -1.18180057e-02 -1.84789784e-02 -3.58058847e-02
      -6.76242495e-03 -2.26487592e-03 3.48339672e-03 -6.80402340e-03
      2.19602007e-02 3.05467378e-03 -2.03302167e-02 -2.30520330e-02
      -3.03458758e-02 1.08079389e-02 1.53095219e-02 3.20749655e-02
      2.19557881e-02 -1.54726044e-03 -5.82717247e-02 -8.43946859e-02
      -7.18616694e-02 -4.05805036e-02 -3.47662112e-03 5.52691054e-03
      1.58398729e-02 1.37896147e-02 2.33534668e-02 1.97327510e-02
      3.67158256e-03 -6.59524091e-03 -2.15456486e-02 -5.21471910e-03
      -6.45430991e-03 1.51300449e-02 3.14584039e-02 9.95725952e-03
      -1.92823857e-02 -3.91794741e-02 -4.98814769e-02 -3.64041366e-02
      -4.90480885e-02 -6.05085343e-02 -2.91820113e-02 9.78644658e-03
      -2.38852184e-02 -4.67748083e-02 -5.37574366e-02 -1.86827891e-02
      1.97982648e-03 1.70302019e-02 1.28452163e-02 3.02183889e-05
      -7.16728391e-03 -2.59670895e-02 -2.98984777e-02 -2.89709531e-02
      3.47490283e-03 1.94509991e-03 4.56155185e-03 -2.11382098e-02
      -3.34633999e-02 -2.65739616e-02 -8.91467463e-03 -2.93227993e-02
      -2.55021844e-02 -4.47672466e-03 -1.07930023e-02 2.76459637e-03
      -2.77107246e-02 -2.57139169e-02 -6.12984179e-03 -3.10423039e-02
      -4.27201726e-02 -2.74493266e-02 7.44217774e-03 6.98733237e-03
      8.03108700e-03 -2.09266804e-02 -2.94412952e-02 -2.43565347e-02
      -5.67197660e-03 -2.69548502e-02 -4.36874814e-02 -2.53023114e-02
      -2.27736905e-02 -1.50649957e-02 -4.55488972e-02 -3.33553478e-02
      -1.65621657e-02 2.88870260e-02 6.40172139e-03 -1.83382425e-02
      -1.33166425e-02 -1.50555540e-02 8.50937143e-03 -2.12144181e-02
      -1.04708187e-02 1.62321683e-02 -1.75903924e-02 -3.66477817e-02
      -3.98055762e-02 -2.13894770e-02 -6.54920796e-03 -1.67687871e-02
      -4.42754589e-02 -3.05866674e-02 -1.49148088e-02 2.04962920e-02
      -6.46300893e-03 -2.84658726e-02 -1.87933501e-02 -1.15259606e-02
      5.33513399e-03 -1.54999699e-02 -6.47413370e-04 1.95991863e-02
      -8.73797387e-03 -7.05010118e-03 -1.64159928e-02 -1.42482836e-02
      -2.66128611e-02 9.57142562e-04 -1.78607740e-02 -2.60167755e-02
      -1.73958931e-02 -1.36498408e-02 -2.76125176e-03 -1.28432009e-02
      4.19608969e-03 -1.86165944e-02 1.95057094e-02 1.91160012e-03
      -3.74755333e-03 -2.09180340e-02 -1.27539923e-02 -1.84837431e-02
      -2.97398269e-02 -2.07876340e-02 -2.66570970e-02 8.57233629e-03
      -6.48107752e-03 -1.18817184e-02 -1.60933509e-02 -1.69534218e-02
      -1.36450185e-02 -1.29704764e-02 5.86103415e-03 -1.03408378e-02
      3.03003117e-02 3.82358651e-03 -1.68215076e-03 -1.84289739e-02
      -1.50873670e-02 -3.92921222e-03 -2.03488525e-02 8.80775508e-03
      -2.69411262e-02 1.42191891e-02 -1.40139246e-02 -5.74956695e-03
      -2.47887410e-02 -1.25479605e-02 1.17517225e-02 -2.15249658e-02
      2.56065209e-03 -4.27443795e-02 8.67170002e-03 -1.87333319e-02
      -9.03406460e-03 -2.24561654e-02 -1.99225824e-02 -1.01892622e-02
      -2.13531461e-02 1.10559426e-02 -5.56765776e-03 3.48127745e-02
      -1.00958049e-02 -4.61841049e-03 -2.19034553e-02 -1.29965255e-02
      3.60609521e-03 -2.08916273e-02 9.77179036e-03 -2.67667137e-02
      2.00674199e-02 -1.36059085e-02 -9.28417314e-04 -1.80483777e-02
      -9.77076963e-03 6.96920976e-03 -1.49775986e-02 2.12559756e-03
      -4.23235223e-02 8.11222009e-03 2.41560489e-03 -3.73586453e-03
      -1.06490050e-02 -4.43361280e-03 8.51225946e-03 -1.08504854e-02
      4.26066713e-03 -5.24040535e-02 -2.23601586e-03 -1.43773947e-03
      5.28008852e-04 -1.00183357e-02 -1.04744616e-03 8.29002168e-03
      -1.00960741e-02 1.32875182e-02 -4.25968245e-02 1.85281150e-02
      -9.61580873e-03 5.26072399e-04 -4.90304735e-03 -3.28590814e-03
      3.15789389e-03 -1.75841711e-02 3.78351146e-03 -3.46467346e-02
      3.82166007e-03 -1.95199810e-02 3.68749211e-03 -7.68147409e-03
      1.24152126e-02 2.38049235e-02 -2.36596237e-03 2.17987830e-03
      -6.50967360e-02 -1.72545258e-02 -1.48759549e-02 6.94912067e-03
      3.70485405e-03 2.42348276e-02 3.25385407e-02 1.32904493e-03
      1.05199339e-02 -5.64080440e-02 -2.05104351e-02 -1.73083059e-02
      1.23376092e-02 1.80399697e-02 1.04791718e-02 2.12241802e-02
      -1.51962209e-02 -6.20376598e-03 -4.64945622e-02 -1.07490495e-02
      -2.41635852e-02 9.39374790e-03 -4.68170596e-03 1.46132819e-02
      1.51467361e-02 -2.41893828e-02 -1.82811581e-02 -4.76397760e-02
      -7.39836879e-03 -1.81459002e-02 7.35490303e-03 1.08880457e-02
      1.72484163e-02 1.65154729e-02 1.13230606e-03 1.41249178e-02
      -3.37076038e-02 -1.99923143e-02 -2.15068609e-02 1.88601261e-03
      7.90674146e-03 -1.98745131e-02 -8.71152326e-04 -9.86694824e-03
      1.18119745e-02 -2.33187042e-02 -2.97667971e-03 -1.53291309e-02
      -1.98947638e-03 -2.63577849e-02 9.93890106e-04 -1.38182077e-03
      -2.43092366e-02 -1.49872052e-02 -4.09995764e-02 4.40539181e-04
      -5.56870410e-03 1.05896406e-02 9.60597210e-03 -2.29456685e-02
      -2.06649341e-02 -2.87011247e-02 6.46312430e-04 -2.15075109e-02
      -1.87262811e-03 -1.49451792e-02 3.80940712e-03 -1.70770381e-02
      -5.46092689e-02 -8.34556110e-03 6.45759283e-04 3.04341204e-02
      7.85131566e-03 2.96926163e-02 2.05372390e-03 -5.06871333e-03
      -5.26873432e-02 -6.30153641e-02 -2.35459097e-02 -9.36617702e-03
      3.39793600e-02 2.20744889e-02 3.66562903e-02 1.85868621e-03
      -2.09553689e-02 -6.18233904e-02 -3.50848436e-02 -2.09733080e-02
      -1.84695981e-02 2.50488222e-02 2.06117462e-02 2.42432002e-02
      -1.05651757e-02 -7.39270775e-03 -4.13065180e-02 -5.07950410e-02
      -3.04465201e-02 -8.48794356e-03 2.60942560e-02 2.56540664e-02
      3.00120004e-02 -1.56034771e-02 -2.93467455e-02 -5.07395677e-02
      -5.11816666e-02 -2.05098577e-02 -1.19764777e-02 2.46702451e-02
      1.56502053e-02 2.44751852e-02 -8.72963457e-04 -2.11180430e-02
      -5.07665128e-02 -4.50402722e-02 -2.95148492e-02 -1.10164499e-02
      2.00751554e-02 2.98315007e-02 2.95975395e-02 -2.20643030e-03
      -2.34936420e-02 -5.35903051e-02 -4.22626473e-02 -2.00704169e-02
      -1.46853074e-03 1.70982517e-02 1.75476428e-02 2.70101186e-02
      -9.37206671e-03 -4.05102223e-02 -4.92191687e-02 -3.93769629e-02
      -2.77364422e-02 -1.35672865e-02 1.66174546e-02 3.07793450e-02
      3.90855856e-02 -9.84482002e-03 -4.20516245e-02 -3.67705226e-02
      -6.59134686e-02 -3.27480063e-02 1.51041744e-03 2.41893344e-02
      3.72533016e-02 3.20201404e-02 1.46632455e-03 -1.61497574e-02
      -6.60525411e-02 -6.92453161e-02 -3.86404134e-02 1.11413654e-03
      2.46067792e-02 4.37592529e-02 3.59582007e-02 9.28490795e-03
      -2.28545610e-02 -6.23175539e-02 -6.17149733e-02 -3.26392502e-02
      -2.52114236e-03 2.71579269e-02 3.54909711e-02 3.63760814e-02
      5.82483626e-05 -2.28390228e-02 -5.77970669e-02 -5.60742617e-02
      -4.24637459e-02 1.74721295e-03 3.19672748e-02 4.85462993e-02
      4.63647395e-02 9.95009113e-03 -2.06211563e-02 -5.00252843e-02
      -4.84602153e-02 -2.25249939e-02 -1.53452263e-03 1.17772697e-02
      3.17221470e-02 2.37516463e-02 5.34951407e-03 -1.84384994e-02
      -4.21014987e-02 -5.47274239e-02 -4.57732752e-02 -1.87573265e-02
      -6.52384618e-03 8.59814789e-03 5.80167340e-04 -3.02947611e-02
      -4.15413231e-02 -5.85688688e-02 -3.90753709e-02 -2.06143390e-02
      1.64657775e-02 1.84404682e-02 3.60672027e-02 3.68766375e-02
      1.58122480e-02 -1.11922924e-03 -2.97093801e-02 -4.78271693e-02
      -4.11777943e-02 -5.80008421e-03 3.74847860e-03 1.67977642e-02
      6.18939614e-03 -1.87452435e-02 -2.43608169e-02 -3.69202010e-02
      -4.37573418e-02 -4.09684889e-02 -2.34499276e-02 -2.15631705e-02
      -2.93265725e-03 2.52997183e-04 -3.12883072e-02 -3.99266444e-02
      -4.51696217e-02 -1.18292077e-02 -1.76068433e-02 -1.88032798e-02
      -2.83696614e-02 -1.56813283e-02 -1.07514448e-02 -1.33683430e-02
      -9.49091185e-03 -6.22626580e-03 -2.68370509e-02 -3.14921215e-02
      -1.77966971e-02 -1.51296323e-02 -2.84589711e-03 -1.17438915e-03
      -2.89535020e-02 -3.07527315e-02 -2.64647901e-02 4.21493826e-03
      -2.49158894e-03 -7.44150439e-03 -2.35720947e-02 -9.15564876e-03
      -8.03244114e-03 -2.37566121e-02 -1.70941669e-02 -5.50296099e-04
      -5.91443060e-03 -9.76957940e-03 -2.72756759e-02 -6.15756400e-02
      -9.23104361e-02 -5.66239506e-02 -2.72158273e-02 -9.88181029e-03
      4.38552210e-03 3.58231962e-02 3.50277424e-02 1.56092010e-02
      -8.64524991e-05 -4.92489934e-02 1.99294873e-02 1.47433681e-02
      2.64464356e-02 3.46595049e-02 4.85409488e-04 -5.00352960e-03
      -2.09745653e-02 -6.32806197e-02 -8.59776437e-02 -6.07568584e-02
      -3.85844484e-02 -1.19708721e-02 -3.40864365e-03 4.31476273e-02
      3.70914824e-02 1.53066078e-02 -6.34609861e-03 -6.35680109e-02
      1.28970444e-02 1.85834002e-02 3.78598757e-02 4.33144048e-02
      -4.95997211e-03 7.10659288e-03 -3.53059382e-03 -9.17564612e-03
      -2.43216660e-02 1.31672970e-03 -1.11795459e-02 -7.96033815e-03
      -1.97005179e-02 -4.74452367e-03 7.98716117e-03 5.88864612e-04
      -8.22418369e-03 -5.06953821e-02 -1.76975168e-02 -1.03326039e-02
      -4.99513699e-03 -1.21019920e-02 -1.03559233e-02 4.45378106e-03
      3.00818123e-03 -3.42767080e-03 -7.49281980e-03 8.97816382e-03
      -1.04081426e-02 -9.56470612e-03 -1.88894831e-02 -7.39318738e-03
      1.21483831e-02 4.24156431e-03 -1.29198646e-02 -3.03688645e-02
      -2.74216607e-02 -1.98795740e-02 -1.03778820e-02 -1.58937518e-02
      1.92038678e-02 1.70553010e-02 1.60175934e-02 1.18394839e-02
      -3.42358351e-02 -1.20372688e-02 -1.82588343e-02 -6.46645017e-03
      9.14747827e-03 2.87236599e-03 -6.26624376e-03 1.53210433e-03
      -1.09630898e-02 -3.81276496e-02 -5.67361005e-02 -7.93555155e-02
      -6.02848455e-02 -2.51571648e-02 8.76924768e-03 1.98595487e-02
      1.82237439e-02 7.20574288e-03 -6.47033937e-03 -2.62777088e-03
      -4.45696758e-03 -4.99458145e-03 -4.54489700e-03 -4.45991289e-03
      -2.67407420e-04 6.51054271e-03 -2.02648298e-04 -7.63062946e-03
      -1.27029121e-02 -2.38710511e-02 -3.15071233e-02 -2.39416063e-02
      -2.36170422e-02 -2.49515548e-02 -1.74817489e-03 1.73655767e-02
      4.78414726e-03 -3.46008223e-03 -4.36624177e-02 -4.95829917e-02
      -3.77288684e-02 -4.76346612e-02 -5.90082668e-02 -2.52652559e-02
      8.73528328e-03 3.37055209e-03 -4.12825635e-03 -2.43073851e-02
      -3.68178301e-02 -4.73385863e-02 -6.86960714e-03 3.65368323e-03
      1.68345347e-02 2.21898407e-02 1.51634607e-02 1.07814670e-02
      -7.18789781e-03 -2.40882840e-02 -2.26761196e-02 -1.02424631e-02
      -1.40637243e-02 -4.64812433e-03 -4.70908795e-04 -1.19567628e-03
      -6.44935528e-03 -8.61406978e-03 -1.59800798e-02 -1.48027865e-02
      -1.47574916e-02 -3.45373750e-02 -1.83223020e-02 4.10816725e-03
      -9.85872559e-03 -3.53407115e-02 -5.03789000e-02 -3.26618813e-02
      -1.33384252e-02 2.74748374e-02 -6.66130381e-03 -1.23916008e-02
      1.07091907e-02 -7.77577329e-03 -1.01412684e-02 -3.59167680e-02
      -1.20538417e-02 2.92140935e-02 1.11132124e-02 6.25693123e-04
      -5.52528327e-05 -4.68233321e-03 -1.18919602e-02 -4.13791016e-02
      -4.94589917e-02 -3.68357487e-02 3.16955033e-03 2.41716020e-02
      1.96871869e-02 1.49946027e-02 1.55372769e-02 -2.83177197e-03
      -4.65912260e-02 -8.12154040e-02 -6.07913323e-02 2.31753872e-03
      3.21974815e-03 -1.19415531e-02 -2.23388094e-02 9.31405369e-03
      -1.19357277e-02 1.77584756e-02 -9.83906630e-03 -4.78448486e-03
      2.43657036e-03 -8.73439200e-03 -4.36003227e-03 1.75261335e-03
      3.09675783e-02 1.15080187e-02 4.18406539e-02 1.78351160e-02
      1.19599770e-03 -1.42750917e-02 -1.58637427e-02 -6.35914458e-03
      -6.77662110e-03 1.12017076e-02 2.50765495e-03 -2.68952027e-02
      -7.81383738e-02 -7.81067312e-02 -5.04289381e-02 -3.27805765e-02
      -1.90630015e-02 -1.75699834e-02 1.62704401e-02 9.86552238e-03
      2.13152841e-02 -2.02564243e-02 -4.84115146e-02 -5.16210347e-02
      -1.17818899e-02 -2.45517469e-03 -1.06971583e-03 2.63819396e-02
      9.32314619e-03 4.65584993e-02 1.69285815e-02 5.41956688e-04
      -1.33081544e-02 -1.68004688e-02 1.29774411e-03 -2.25459551e-03
      2.08984781e-02 -1.25136329e-02 4.19595353e-02 6.24361401e-03
      8.94125737e-03 -1.23710092e-02 -4.76238355e-02 -3.14126201e-02
      -2.50103567e-02 1.50567265e-02 1.25985304e-02 2.28062663e-02
      -1.51153076e-02 -3.99839506e-02 -5.92416823e-02 -4.08878624e-02
      -3.77298854e-02 -3.43620963e-02 -2.13163462e-03 -7.29100080e-03
      1.08623859e-02 -1.85804367e-02 -4.32613604e-02 -4.84047867e-02
      3.32903047e-03 1.42190689e-02 3.16708419e-03 2.19369307e-02
      -1.36959553e-02 3.74588743e-02 4.29040194e-03 6.95527950e-03
      3.94209928e-04 9.97765269e-03 1.06292609e-02 -1.20142559e-02
      1.51095567e-02 -2.92755920e-03 3.05608958e-02 -5.17477281e-03
      2.81299185e-03 2.38593132e-03 -3.27393562e-02 -2.46533211e-02
      -2.22195555e-02 8.42888746e-03 -8.51575099e-03 3.68632632e-03
      -1.73099730e-02 -3.97374816e-02 -4.78798859e-02 -3.55487578e-02
      -3.23974788e-02 -2.60135047e-02 4.83692298e-03 -1.45781750e-03
      1.20016630e-03 -3.24373208e-02 -5.98885417e-02 -4.65104543e-02
      2.35722400e-02 1.86413843e-02 -8.09051283e-03 3.66634899e-03
      -1.86575938e-03 1.55148385e-02 -3.90171050e-03 4.66350047e-03
      5.90748759e-03 2.70304196e-02 9.30037070e-03 -1.32016055e-02
      -9.06236283e-03 -7.55339861e-04 2.94229686e-02 1.24717709e-02
      1.13763558e-02 1.12609919e-02 -3.23069207e-02 -2.50001233e-02
      -1.86733399e-02 -5.06054936e-03 1.42744079e-03 -6.19864906e-04
      -2.39773188e-02 -6.12696484e-02 -5.38926050e-02 -4.29280959e-02
      -4.67920750e-02 -4.16908115e-02 -2.56376024e-02 -8.61055218e-03
      1.04357749e-02 -8.15914106e-03 -5.21843061e-02 -4.94192094e-02
      4.78889933e-03 -4.53128060e-03 -1.62739176e-02 -2.01102812e-02
      -1.63607709e-02 3.09407283e-02 2.34945249e-02 1.99096557e-02
      9.30151716e-03 -6.26560440e-03 -1.43937080e-03 -1.38087776e-02
      6.14820095e-03 4.62134508e-03 3.18961777e-02 2.74270456e-02
      3.25209834e-02 1.72162394e-03 -6.52831197e-02 -6.52790889e-02
      -4.35166694e-02 -2.26837359e-02 -1.53690679e-02 1.92236826e-02
      9.33010504e-03 -2.86233425e-02 -5.86704277e-02 -6.00151867e-02
      -5.85760623e-02 -3.14150080e-02 -1.79573428e-02 1.17524178e-05
      2.99785323e-02 2.05725655e-02 -4.25020093e-03 -5.27672209e-02
      -1.31234797e-02 -6.50791638e-03 -6.93669403e-03 2.36939099e-02
      2.09773779e-02 2.83379946e-02 1.85254607e-02 1.85878314e-02
      -1.34125706e-02 -3.58783491e-02 -1.94267370e-02 -1.93488901e-03
      2.81928964e-02 2.44715102e-02 2.51760632e-02 3.74509767e-03
      -5.14331320e-03 -3.30567434e-02 -6.76064119e-02 -4.48146239e-02
      -2.25719791e-02 -7.67472852e-03 -7.55654555e-03 1.43028200e-02
      1.87196508e-02 -8.27472098e-03 -5.61414622e-02 -5.51154688e-02
      -5.23370244e-02 -2.09690556e-02 -3.80866550e-04 5.37466444e-03
      4.82403906e-03 1.70554351e-02 -2.31329557e-02 -5.45033887e-02
      -4.17901389e-02 -2.42622104e-02 2.10428098e-03 1.67703815e-02
      2.24097036e-02 2.17679683e-02 -5.45870687e-04 -2.38531604e-02
      -3.96234319e-02 -4.42443229e-02 -2.50618216e-02 8.54570186e-04
      1.96630713e-02 2.75316834e-02 3.71332951e-02 -2.35064258e-03
      -3.03558595e-02 -4.42235768e-02 -5.19317165e-02 -4.25794646e-02
      -8.09036288e-03 3.76711739e-03 2.86301505e-03 8.63902923e-03
      1.47819845e-02 -1.59573965e-02 -4.71584201e-02 -3.35384160e-02
      -3.09855584e-02 1.80336610e-05 6.50294591e-03 5.78708109e-03
      2.15888228e-02 1.13959564e-02 -1.58150718e-02 -3.51687856e-02
      -6.40904754e-02 -4.13859934e-02 -2.32127821e-03 2.62773074e-02
      1.98306758e-02 3.18752304e-02 4.57487069e-03 -2.00719181e-02
      -5.94475158e-02 -6.26551732e-02 -5.38892262e-02 -2.77486164e-03
      2.89813541e-02 4.01206613e-02 4.63909246e-02 1.50494101e-02
      -1.60982329e-02 -5.72850779e-02 -4.26716767e-02 -2.98550744e-02
      -4.58945840e-04 8.33374169e-03 -6.02403609e-03 1.52776632e-02
      1.14753116e-02 -1.05197551e-02 -4.61487547e-02 -4.77335267e-02
      -2.47199312e-02 5.84366312e-03 1.75051186e-02 1.81038771e-02
      2.26403177e-02 1.96858179e-02 -3.21319932e-03 -4.14560251e-02
      -6.68104962e-02 -5.73302619e-02 -3.64769250e-03 1.43265175e-02
      2.27893423e-02 2.35234164e-02 4.56058513e-03 -1.83036961e-02
      -6.07803538e-02 -7.06917569e-02 -7.26984739e-02 -1.91018283e-02
      -5.48759289e-03 1.00737661e-02 -1.09195644e-02 -2.01458205e-02
      -3.45081650e-02 -6.23878986e-02 -4.34388034e-02 -2.71943156e-02
      1.51630398e-02 2.49474756e-02 1.52027654e-02 1.13955177e-02
      1.09904651e-02 -9.06765054e-04 -2.53990479e-02 -2.76025888e-02
      -2.26905737e-02 8.91254842e-03 2.14963201e-02 2.43519936e-02
      1.97663698e-02 4.20562178e-03 -2.48725549e-03 -1.91823803e-02
      -4.93581593e-02 -4.97243330e-02 -3.64439413e-02 -2.43707690e-02
      -2.10050885e-02 -2.71305591e-02 -4.00049202e-02 -4.59502414e-02
      -5.26859425e-02 -1.72896143e-02 -2.63940543e-02 -2.39885002e-02
      -3.97721641e-02 -3.19129005e-02 -3.15941870e-02 -4.53693494e-02
      -4.00516316e-02 -2.90714260e-02 -7.02337595e-03 7.20537850e-04
      4.60004620e-03 1.83313973e-02 4.57093306e-03 1.99531112e-02
      -6.75307214e-03 -1.22367509e-03 -1.00822141e-02 5.81177743e-03
      1.06912646e-02 1.18844882e-02 1.34525541e-02 2.10767169e-03
      1.18787969e-02 -1.11037064e-02 6.21572742e-03 2.43234541e-03
      -6.42280281e-03 -1.69187393e-02 -1.84502956e-02 -5.46719283e-02
      -8.58601630e-02 -4.83402424e-02 -3.87939624e-02 -1.86078027e-02
      -1.63774937e-02 2.33468991e-02 1.45243518e-02 4.65331366e-03
      -2.04423647e-02 -6.05694242e-02 1.55745856e-02 1.29774474e-02
      2.93331575e-02 2.51602512e-02 -1.23133324e-02 -7.99334794e-03
      -8.51485226e-03 -1.28536588e-02 -4.44294773e-02 -1.52420439e-02
      -2.79862713e-02 -7.89068639e-03 -1.13060074e-02 1.29270181e-02
      1.58197302e-02 1.23608848e-02 -7.92752672e-03 -3.38454507e-02
      9.61611420e-03 -9.73405223e-03 1.34310899e-02 1.32838469e-02
      -1.43824862e-02 3.68404971e-03 4.93987417e-03 -1.45892927e-03
      -7.19909929e-03 1.53413350e-02 6.54736708e-04 -2.98576732e-03
      -1.85676981e-02 -7.04298634e-03 1.43447798e-02 1.26982350e-02
      -6.28887070e-03 -1.86931398e-02 -1.29702939e-02 -6.34271745e-03
      -5.10940095e-03 -1.30307386e-02 -2.60958839e-02 -4.03076457e-03
      -5.44963172e-03 4.54451144e-03 -1.00444099e-02 4.42315079e-03
      7.73319835e-03 -1.40988559e-04 -3.76244970e-02 -1.59305241e-02
      2.47037970e-03 -2.32154760e-03 -4.18908196e-03 -1.31610259e-02
      -7.86188710e-03 -6.13939716e-03 -1.09063257e-02 -2.34252550e-02
      -1.72354572e-03 1.24396458e-02 1.14339292e-02 -5.34962048e-04
      -1.22092729e-02 -4.94124275e-03 3.07232910e-03 1.06178015e-03
      -9.30762477e-03 -6.61924388e-03 -1.53586431e-03 4.55656787e-03
      -7.05175009e-03 -2.65363641e-02 -1.99787528e-03 4.69150627e-03
      -6.45206077e-03 -1.75669957e-02 -1.63008533e-02 3.75364535e-03
      4.98322211e-03 9.48158745e-03 -6.78905286e-03 3.21884966e-03
      -5.59085514e-03 -1.76676564e-04 -1.52095519e-02 -1.63859818e-02
      -3.55036906e-03 4.88439156e-03 1.40862190e-03 -8.82829446e-03
      6.60433341e-03 -2.95482134e-03 -3.10898572e-03 -1.87619999e-02
      4.59813140e-03 1.08100148e-02 1.45046897e-02 6.76523568e-03
      -1.93297435e-02 9.14614089e-03 5.86929405e-03 -9.08827968e-03
      -8.59337859e-03 2.95047346e-03 7.65742781e-03 -5.36761200e-03
      -2.23788638e-02 -3.85603867e-02 -2.97681633e-02 -7.94121996e-03
      -4.13702242e-03 -6.53285999e-03 -2.39667180e-03 5.21822879e-03
      9.22883861e-03 1.10277487e-02 -1.07729593e-02 1.61984172e-02
      5.93616674e-03 -4.65463707e-03 -5.55468583e-03 2.64008297e-03
      2.93260353e-04 -5.34021016e-03 -1.79890450e-02 -2.72293147e-02
      -2.21495479e-02 -8.64979811e-03 -6.40275329e-03 -3.32559459e-03
      1.76748130e-02 1.89570449e-02 3.98263521e-03 -4.62473650e-03
      -1.87477265e-02 -1.81470495e-02 -2.54778750e-02 -8.05034209e-03
      6.47035381e-03 1.74048189e-02 2.16527563e-02 1.53745394e-02
      1.43879373e-02 -1.39336847e-02 -3.74697708e-02 -7.54885897e-02
      -7.18380213e-02 -2.13873517e-02 3.62621644e-03 8.28997325e-03
      -1.68491551e-03 1.79866410e-03 -1.18065337e-02 7.07727531e-03
      8.68438836e-03 7.18206353e-03 -2.18604901e-03 -5.89318061e-03
      7.72993825e-03 6.93199458e-03 9.91870277e-03 -1.82188954e-02
      6.71133306e-03 -5.93046378e-03 -2.63574757e-02 -1.36247044e-02
      1.18212458e-02 1.48645127e-02 2.85034627e-02 3.27704847e-02
      2.76535470e-02 4.37073410e-03 -5.94313480e-02 -7.92709216e-02
      -3.58062796e-02 -1.71955433e-02 1.72859547e-03 1.61895175e-02
      2.97080465e-02 4.23682593e-02 3.27074379e-02 -2.04047244e-02
      -6.43161014e-02 -4.40067388e-02 -1.00008063e-02 4.36320249e-03
      1.91876143e-02 1.14793200e-02 -1.09219030e-02 8.84072948e-03
      -1.25363450e-02 -4.83302027e-02 -2.18002684e-02 -1.73365548e-02
      1.01685068e-02 9.95796360e-03 5.03182830e-03 5.66805759e-03
      8.46720114e-03 -2.06767321e-02 -4.80114184e-02 -3.26133296e-02
      -2.74276119e-02 -5.77199180e-03 2.50683608e-03 2.30423566e-02
      4.26872261e-02 3.34444717e-02 -6.97322981e-03 -4.48386632e-02
      -4.35622558e-02 -3.09011806e-02 -1.31168244e-02 -8.08505528e-03
      2.01846994e-02 2.39998456e-02 3.29135060e-02 1.05202906e-02
      -2.48743705e-02 -3.88802253e-02 -2.80053671e-02 5.24364598e-03
      1.09193090e-03 1.55504839e-02 1.59231480e-02 1.78019460e-02
      -1.50330486e-02 -5.26861586e-02 -4.53837775e-02 -2.79813539e-02
      -5.17074484e-03 -7.49154075e-04 1.81433801e-02 1.74510926e-02
      2.37497240e-02 2.25531682e-03 -2.61895154e-02 -2.92871930e-02
      -2.51306873e-02 -1.61260776e-02 -7.30784424e-03 1.34199001e-02
      6.97494717e-03 1.55844791e-02 9.12888814e-03 -2.28061657e-02
      -4.87339310e-02 -3.03061549e-02 -1.22254770e-02 2.55298545e-03
      1.80763118e-02 1.17664216e-02 1.62566956e-02 -7.13228830e-04
      -2.83559151e-02 -4.05156501e-02 -2.66874302e-02 -9.21750162e-03
      3.54611059e-03 1.90162342e-02 1.83324167e-03 1.31789409e-02
      6.12227479e-03 -1.34503450e-02 -3.71596441e-02 -1.47398654e-02
      2.68337643e-03 8.97058006e-03 1.12228123e-02 9.17993393e-03
      1.61697157e-02 1.41786616e-02 -6.60249777e-03 -2.13264413e-02
      -3.29263397e-02 -1.80794615e-02 2.04972434e-03 7.94312451e-03
      4.38443525e-03 8.98317061e-03 -2.30798731e-03 -3.70168425e-02
      -4.00013961e-02 -3.81350480e-02 -3.20408270e-02 -1.19135799e-02
      9.98024549e-03 3.45890154e-03 1.69474483e-02 7.90447090e-03
      -3.50924358e-02 -3.01483069e-02 -1.17607908e-02 3.28977854e-04
      1.05482256e-02 9.00007877e-03 3.49464174e-03 1.45091340e-02
      1.80356223e-02 -6.27343403e-03 -2.22457871e-02 5.40644454e-04
      1.90443918e-03 1.10777235e-02 1.27193900e-02 1.77034754e-02
      1.72553957e-02 1.53649226e-02 -1.98340067e-03 -7.18622096e-03
      -5.38295098e-02 -4.37570922e-02 -1.92304198e-02 1.74685323e-03
      -9.17605497e-03 1.94951631e-02 1.19497366e-02 -2.77424343e-02
      -4.70160134e-02 -4.54692692e-02 -2.60649640e-02 -9.09144059e-03
      -1.04737105e-02 -4.76370333e-03 2.86421105e-02 2.76916958e-02
      1.70916319e-03 -3.19349989e-02 -8.51587392e-03 -4.65049269e-03
      1.13105206e-02 1.97458663e-03 -7.33288890e-03 -2.69785919e-03
      1.71195902e-03 -4.44445712e-03 -1.63955763e-02 2.19765957e-03
      1.71210710e-02 2.17989367e-02 -9.72666778e-03 -1.12402150e-02
      -4.32018330e-03 2.31812112e-02 1.80255659e-02 -3.99987726e-03
      -5.41322306e-02 -2.51152944e-02 -1.63514372e-02 -1.24987727e-02
      -3.55405360e-02 3.73511622e-03 1.21582085e-02 -1.94127802e-02
      -4.21506204e-02 -2.55757589e-02 -1.47278020e-02 -6.28664065e-03
      7.03970576e-03 -2.62741353e-02 1.51765184e-03 1.83002800e-02
      -1.44538870e-02 -2.05278825e-02 3.16105573e-03 1.77359376e-02
      3.18373134e-03 -1.22531895e-02 -2.61232518e-02 -5.25391148e-03
      1.67860370e-02 4.74449014e-03 -2.75408267e-03 2.81160418e-02
      3.87621932e-02 1.35877719e-02 8.82913638e-03 -1.28299464e-02
      -1.95695041e-03 2.16415059e-02 1.08990753e-02 1.95192471e-02
      -2.96312701e-02 -1.49466284e-02 -5.17291343e-03 -2.66330666e-03
      -4.95390855e-02 -7.83611834e-03 7.34964677e-04 -1.15406075e-02
      -3.07292361e-02 -1.01217441e-02 -3.35226115e-03 3.27576697e-03
      -2.84349010e-03 -5.55192009e-02 -2.04997929e-03 2.48633977e-03
      5.38208149e-03 -1.45574603e-02 2.14436017e-02 2.68609133e-02
      1.34701869e-02 4.59101703e-03 -3.87211852e-02 -1.08863274e-02
      -2.57854117e-03 8.45597312e-03 7.30417029e-04 2.67706048e-02
      2.92048082e-02 1.07722329e-02 -9.31618176e-03 -5.48218414e-02
      -4.36821580e-03 1.12750921e-02 2.47058701e-02 1.33473026e-02
      -1.68541912e-02 -1.17511610e-02 -1.49836531e-02 -1.77290421e-02
      -7.12595806e-02 -1.13884825e-02 -7.21533271e-03 -6.78007957e-03
      -3.23983058e-02 -1.53169492e-02 7.22238608e-03 -4.29170905e-03
      5.15869237e-04 -5.33886366e-02 -1.93983887e-03 -8.25418174e-05
      9.02975211e-04 -2.07309369e-02 2.00727675e-02 1.65429227e-02
      -4.19022143e-03 -1.86739787e-02 -6.70631528e-02 -7.98411667e-03
      2.03354401e-03 1.11840777e-02 1.43004640e-03 2.35940199e-02
      2.91215610e-02 1.35876797e-02 1.96260307e-02 -3.49738561e-02
      -2.98917736e-03 -7.52216380e-04 2.43341690e-03 8.99832230e-03
      -2.05375832e-02 -5.26345393e-04 -2.63340143e-03 -4.90771653e-03
      -6.25838563e-02 -1.61824469e-02 -1.57201346e-02 -7.37588666e-03
      -1.68284867e-02 -6.99611101e-03 1.54523936e-03 -5.89257060e-03
      8.53080023e-03 -5.01807220e-02 -3.85812041e-03 -1.63053703e-02
      -2.48034392e-03 -1.33902160e-02 7.07712816e-03 1.81959625e-02
      -7.07876985e-04 7.35816173e-03 -6.41415119e-02 -1.61012933e-02
      -1.49163036e-02 -4.44149924e-03 -8.06016033e-04 6.25960471e-04
      1.01404991e-02 -1.46817556e-02 3.85348313e-03 -4.39081676e-02
      -5.33760432e-03 -1.12193683e-02 4.12957044e-03 -4.81279660e-03
      -1.20742258e-03 2.04923865e-03 -1.48458704e-02 7.26787793e-03
      -5.76504618e-02 2.84881890e-03 -2.49524135e-02 -4.72193304e-03
      -7.87737314e-03 -7.68954778e-05 -2.89519108e-03 -1.53340064e-02
      -9.86937620e-03 -6.34805858e-02 -1.51461996e-02 -2.79820245e-02
      -4.54470748e-03 -3.13263689e-03 6.09713420e-03 6.81017712e-03
      -1.31680155e-02 3.67513974e-03 -5.78266941e-02 -2.20675793e-04
      -1.56958345e-02 7.60103052e-04 -7.80650228e-03 1.35623664e-02
      1.89294908e-02 -1.31862029e-03 2.96470011e-04 -4.43709344e-02
      -8.95777903e-03 -1.03556253e-02 6.20769616e-03 6.58334373e-03
      2.79821292e-03 5.33040287e-03 -7.84993358e-03 -1.09469611e-02
      -6.97488412e-02 -1.76155102e-02 -2.53207833e-02 -5.63511299e-03
      2.71740672e-03 5.70052909e-03 1.50356600e-02 3.62205785e-03
      -1.13255985e-03 -6.61850572e-02 -2.43161526e-02 -2.40470283e-02
      -4.00615204e-03 2.23055668e-03 1.06673706e-02 1.87005568e-02
      6.45051943e-03 -4.22046520e-03 -6.02312796e-02 -1.06344959e-02
      -7.46583054e-03 6.07129140e-03 3.73767014e-03 4.43719886e-03
      2.62066144e-02 4.11168160e-03 -2.00258871e-03 -5.76996244e-02
      -1.84502881e-02 -2.31440514e-02 1.15354802e-03 -5.28065534e-03
      -3.18022594e-02 5.17545850e-05 -7.84614775e-03 1.00739608e-02
      -1.37019008e-02 1.02982689e-02 4.30757180e-03 2.02250946e-03
      -2.81518754e-02 -2.45987140e-02 -2.55546393e-03 -1.01821329e-02
      9.93085559e-03 -1.14777107e-02 -5.74595015e-03 -7.26807769e-03
      1.10291352e-03 -1.51226567e-02 -4.08490635e-02 -1.81060343e-03
      -2.89152784e-04 1.64565910e-02 1.96522046e-02 9.64708067e-03
      -2.14664382e-03 -7.28038000e-03 -2.94068456e-02 -2.97667775e-02
      6.48444425e-03 8.27461074e-04 1.11436555e-02 3.35651380e-03
      -9.71244182e-03 -1.10265967e-02 -4.91214311e-03 -2.85544451e-02
      -1.79170743e-02 8.12557153e-03 5.95414173e-03 1.78303383e-02
      -1.02703180e-02 1.19167259e-02 -8.32511019e-03 4.50992491e-03
      -1.21532865e-02 -2.33754497e-02 -6.38049049e-03 2.22087931e-03
      8.34831130e-03 -9.00328625e-03 1.32442219e-02 -2.91648670e-03
      3.79603356e-03 -2.15566289e-02 -1.36983460e-02 1.12629095e-02
      5.33670466e-03 1.29439812e-02 -5.90853160e-03 1.18682403e-02
      -2.56578485e-03 1.32367490e-02 -1.85897071e-02 -1.77878328e-02
      -9.88774747e-03 -1.63132530e-02 2.20719934e-03 -1.48004750e-02
      1.03384431e-03 -4.86967247e-03 -3.93844995e-04 -2.62746271e-02
      -9.19367303e-04 4.42945166e-03 -4.44716914e-03 1.24537433e-02
      -1.40300598e-02 2.32404508e-02 6.25441922e-03 7.71715352e-03
      3.67173436e-03 -1.43512012e-03 -7.53692817e-03 -1.80110317e-02
      -8.93171970e-03 -2.87517644e-02 -9.42242518e-03 -4.65607224e-03
      -1.48144449e-04 -2.22911872e-03 -4.60856501e-03 -9.90578532e-03
      -1.50837786e-02 8.93315207e-03 -5.46104461e-03 1.00082410e-02
      8.09094869e-04 1.10579431e-02 -1.57654379e-02 -8.58371984e-03
      -1.42463753e-02 -1.25670815e-02 -7.32678035e-03 -1.04873180e-02
      -1.04471305e-02 -4.73780278e-03 9.60751064e-03 -1.91614740e-02
      -4.77365777e-03 6.28379348e-04 -8.61303043e-03 1.45244901e-03
      -3.17753032e-02 1.03803491e-02 6.02670759e-03 1.88561695e-04
      -1.38811721e-02 -1.67655312e-02 5.42575028e-04 -9.50070936e-03
      -2.14987900e-03 -3.32484618e-02 1.15328329e-02 6.67734165e-03
      -4.71305102e-03 -1.80027373e-02 -6.56485138e-03 4.29461291e-03
      -6.61761453e-03 1.19139790e-03 -1.47946291e-02 9.60445032e-03
      8.22264887e-03 1.42068183e-02 -1.40831470e-02 -1.35597987e-02
      3.03954608e-03 -1.30965095e-02 -1.27196666e-02 -1.31145315e-02
      8.38926714e-03 1.02212820e-02 1.41693726e-02 -6.82891719e-03
      -3.52857262e-03 1.66727253e-03 -2.62648147e-03 -4.69442317e-03
      -4.89190444e-02 7.44482921e-03 4.21183230e-03 -5.54791186e-03
      -4.47082100e-03 4.75376408e-04 7.44886743e-03 -2.00725254e-03
      -1.16813313e-02 -4.41695303e-02 -1.10004535e-02 -5.51301241e-03
      -5.93106309e-03 9.71911126e-04 6.22789143e-03 4.49257437e-03
      -9.62186977e-03 -5.45470230e-03 -1.97204836e-02 5.45269903e-03
      1.35296136e-02 1.86651684e-02 1.26537969e-02 1.20675554e-02
      1.00918524e-02 -4.21221461e-03 -9.06085968e-03 -2.02737190e-02
      -8.82388186e-03 1.00742122e-02 3.31354439e-02 1.63400378e-02
      -1.42953992e-02 -5.96501911e-03 -5.94646251e-03 -7.94878229e-03
      -4.80454341e-02 -1.10733984e-02 -3.62451025e-03 -1.18676815e-02
      -1.90169513e-02 -1.71438772e-02 -5.57729602e-03 2.63219466e-04
      8.66405386e-03 -3.05183865e-02 1.65337767e-03 1.10192522e-02
      4.15351568e-03 -1.55590568e-02 2.46099010e-03 7.83076975e-03
      -5.96994348e-03 -1.16523691e-02 -3.47194299e-02 -1.11181997e-02
      1.30361896e-02 2.94337943e-02 1.66437507e-03 1.07327728e-02
      2.06208583e-02 6.15748577e-03 4.47561062e-04 -2.32271589e-02
      4.28370759e-03 2.86454596e-02 3.72327268e-02 1.63096208e-02
      -2.18363293e-02 -8.96782055e-03 2.01448775e-03 7.79169193e-03
      -4.20567356e-02 -1.21341124e-02 -5.04978420e-03 -1.15268948e-02
      -2.97479238e-02 -1.13206962e-02 1.51963241e-03 1.26467785e-03
      3.12663824e-03 -3.33995298e-02 -4.28855233e-03 2.41662143e-03
      -1.05145555e-02 -1.43954959e-02 1.99342035e-02 1.49929561e-02
      8.21190700e-03 -5.20034428e-06 -3.92984860e-02 -2.20910949e-03
      1.70303825e-02 2.33951602e-02 1.76798087e-02 1.91786792e-02
      1.97178666e-02 1.17596220e-02 2.31242692e-03 -3.04837264e-02
      -2.50370824e-03 1.38234003e-02 2.37331055e-02 1.28881177e-02
      -2.09798254e-02 -3.71965114e-03 -9.05603578e-04 -9.20152385e-03
      -3.89953963e-02 -1.28390896e-03 8.32707528e-03 -7.49808596e-03
      -2.04710495e-02 -6.09320030e-03 2.95984489e-03 4.23842994e-03
      -9.12641920e-03 -2.84502171e-02 2.04787240e-03 3.83140263e-03
      -3.95108573e-03 -1.49459960e-02 3.84487235e-03 1.75559223e-02
      6.70060981e-03 -3.92653793e-03 -2.97232792e-02 -3.44581669e-03
      1.57776475e-02 2.15710681e-02 5.11041319e-04 8.06573033e-03
      2.38689501e-02 1.66474748e-02 1.79822824e-03 -1.66879985e-02
      1.35526818e-03 1.40562784e-02 2.56008580e-02 -3.41797504e-03
      -1.27408952e-02 1.23496633e-03 7.60327373e-03 -1.77162010e-02
      -5.28998785e-02 -1.78499892e-02 -7.28088524e-03 -2.94590415e-03
      -2.45100129e-02 -1.09827137e-02 8.77083093e-03 1.00123174e-02
      -7.34509714e-03 -4.32027541e-02 -2.11430565e-02 1.28386542e-02
      1.32463472e-02 -1.32019632e-02 4.50938474e-03 1.98575035e-02
      2.43733879e-02 -5.54541883e-04 -3.44615541e-02 -1.70457307e-02
      5.21206018e-03 1.40957776e-02 -5.53581584e-03 2.63231015e-03
      2.72684637e-02 1.90245435e-02 1.19840084e-02 -1.99180599e-02
      -2.70206411e-03 1.12150479e-02 1.84707288e-02 -1.44536211e-03
      -1.11614270e-02 9.85598564e-03 -4.48182458e-03 -1.20262625e-02
      -5.68360500e-02 -1.60379168e-02 6.58198819e-03 6.13997271e-03
      -3.87127628e-03 9.68188886e-03 1.86968427e-02 -4.15539462e-03
      -6.67572441e-03 -4.25149128e-02 -9.99226980e-03 5.72013948e-03
      1.02715716e-02 8.57734866e-03 -1.53859835e-02 1.86281241e-02
      -6.68412540e-03 -1.88989390e-04 -2.93165836e-02 1.93374732e-03
      3.91761540e-03 6.58081705e-03 -5.91291394e-03 2.01064351e-04
      1.80540178e-02 -1.86796661e-03 1.27337419e-03 -1.24935806e-02
      7.97870511e-04 -2.42569228e-03 1.18532870e-02 -2.02926970e-03
      1.07018910e-02 1.97024345e-02 8.21811985e-03 2.73779209e-04
      -5.18438332e-02 -1.40037090e-02 1.39319012e-03 8.35450552e-03
      -1.98685913e-03 6.06673490e-03 2.13152487e-02 1.02339499e-02
      1.16855581e-03 -5.88961877e-02 -9.54305381e-03 5.04813390e-03
      8.89742654e-03 4.60813608e-04 -3.31118790e-04 1.43100480e-02
      5.30912215e-03 5.39802061e-03 -2.24604458e-02 -1.49535807e-02
      -1.06241247e-02 1.03314947e-02 -3.79179372e-04 -9.00167692e-03
      2.10977755e-02 7.47217424e-03 6.03920920e-03 -2.14823466e-02
      -1.63885914e-02 -1.09269097e-02 4.64431988e-03 -5.28227631e-03
      1.21707062e-03 1.22503126e-02 1.37231965e-03 -4.36691986e-03
      -6.26180097e-02 -1.51536409e-02 -4.30917507e-03 6.91297522e-04
      -8.95896112e-04 1.21624582e-02 1.89630203e-02 7.14113237e-03
      2.05251798e-02 -4.23615426e-02 2.38253153e-03 -4.54765698e-03
      -5.02247422e-04 3.16946581e-03 -1.93641279e-02 9.75009799e-03
      -1.05351431e-03 -9.08973961e-05 -3.57033983e-02 -2.02688146e-02
      -1.55090289e-02 -7.60006486e-03 -1.80620439e-02 -8.18717387e-03
      8.83212034e-03 -3.47922323e-03 1.63540114e-02 -1.22767137e-02
      9.17218067e-03 -8.39337881e-04 -2.00152354e-04 -1.63338240e-02
      1.08345104e-02 1.83626041e-02 4.61779628e-03 1.62103735e-02
      -5.83258681e-02 -1.31635927e-02 -1.12179983e-02 -5.12857502e-03
      -6.54646335e-03 1.10918749e-03 2.47735227e-03 -5.95505303e-03
      9.18110739e-03 -3.59245948e-02 -5.03625069e-03 -5.33253327e-03
      -1.53242855e-03 -7.28126522e-03 -4.49919404e-04 1.22030731e-02
      -2.03701970e-03 7.86583405e-03 -3.40475626e-02 -1.13662947e-02
      -1.35329617e-02 -1.05972271e-02 -1.80972274e-02 -1.86793157e-03
      2.22962396e-03 -1.23501042e-04 1.06650693e-02 -1.55981928e-02
      -1.17407432e-02 -1.41777191e-02 -1.00130392e-02 -1.62131246e-02
      -9.46542062e-03 8.59139429e-04 -7.63733964e-03 4.64614574e-03
      -4.96794619e-02 -6.07391261e-03 -1.12557458e-02 -1.57621608e-03
      -1.17418375e-02 -2.79028015e-03 1.75818671e-02 3.72202205e-03
      8.28019250e-03 -3.96432355e-02 -7.95381516e-03 -1.18448325e-02
      6.03950722e-03 4.49329964e-04 -1.49414213e-02 -1.89163012e-03
      -9.15542897e-03 9.30107757e-03 -4.22804505e-02 -5.33923693e-03
      -1.89526677e-02 -8.96675326e-03 -1.72154699e-02 -1.46990195e-02
      9.05186310e-03 -3.81635828e-03 6.32417668e-03 -2.86912248e-02
      -9.19694360e-03 -1.72499381e-02 4.25736001e-03 -2.00181678e-02
      3.20228841e-03 1.69477519e-02 2.06385227e-03 1.34578289e-03
      -6.33871928e-02 -9.36605129e-03 -1.21085588e-02 2.23952881e-03
      -2.05999869e-03 2.27390067e-03 2.36778185e-02 -4.11936169e-04
      4.98056086e-03 -6.30320907e-02 -9.20952391e-03 -7.69493449e-03
      6.97817095e-03 -7.31298560e-03 -8.87015834e-03 3.97605402e-03
      -2.72989343e-03 1.93240738e-03 -5.55678122e-02 -1.77860819e-02
      -1.98150612e-02 -1.09980372e-03 -1.82685722e-02 -4.28939937e-03
      1.60991754e-02 -1.77969923e-03 1.37013448e-02 -4.12561819e-02
      -1.66407861e-02 -3.05682165e-03 1.22529930e-02 -1.23657538e-02</_></support_vectors>
  <decision_functions>
    <_>
      <sv_count>1</sv_count>
      <rho>-5.2653913738464411e+00</rho>
      <alpha>
        1.</alpha>
      <index>
        0</index></_></decision_functions></my_svm>
</opencv_storage>
